digraph Tree {
node [shape=box, style="filled, rounded", color="black", fontname="helvetica"] ;
edge [fontname="helvetica"] ;
0 [label="age <= 33.5\ngini = 0.749\nsamples = 23\nvalue = [3, 9, 3, 3, 5]\nclass = Classical", fillcolor="#e2f9d3"] ;
1 [label="gender <= 0.5\ngini = 0.764\nsamples = 15\nvalue = [3, 1, 3, 3, 5]\nclass = Jazz", fillcolor="#fbdef4"] ;
0 -> 1 [labeldistance=2.5, labelangle=45, headlabel="True"] ;
2 [label="age <= 27.0\ngini = 0.5\nsamples = 6\nvalue = [3, 0, 3, 0, 0]\nclass = Acoustic", fillcolor="#ffffff"] ;
1 -> 2 ;
3 [label="gini = 0.0\nsamples = 3\nvalue = [0, 0, 3, 0, 0]\nclass = Dance", fillcolor="#39e5c5"] ;
2 -> 3 ;
4 [label="gini = 0.0\nsamples = 3\nvalue = [3, 0, 0, 0, 0]\nclass = Acoustic", fillcolor="#e58139"] ;
2 -> 4 ;
5 [label="age <= 27.0\ngini = 0.568\nsamples = 9\nvalue = [0, 1, 0, 3, 5]\nclass = Jazz", fillcolor="#f6bdea"] ;
1 -> 5 ;
6 [label="gini = 0.0\nsamples = 3\nvalue = [0, 0, 0, 3, 0]\nclass = HipHop", fillcolor="#3c39e5"] ;
5 -> 6 ;
7 [label="age <= 31.5\ngini = 0.278\nsamples = 6\nvalue = [0, 1, 0, 0, 5]\nclass = Jazz", fillcolor="#ea61cd"] ;
5 -> 7 ;
8 [label="gini = 0.0\nsamples = 4\nvalue = [0, 0, 0, 0, 4]\nclass = Jazz", fillcolor="#e539c0"] ;
7 -> 8 ;
9 [label="gini = 0.5\nsamples = 2\nvalue = [0, 1, 0, 0, 1]\nclass = Classical", fillcolor="#ffffff"] ;
7 -> 9 ;
10 [label="gini = 0.0\nsamples = 8\nvalue = [0, 8, 0, 0, 0]\nclass = Classical", fillcolor="#7be539"] ;
0 -> 10 [labeldistance=2.5, labelangle=-45, headlabel="False"] ;
}